SVM-light Version V6.20
0 # kernel type
3 # kernel parameter -d 
1 # kernel parameter -g 
1 # kernel parameter -s 
1 # kernel parameter -r 
empty# kernel parameter -u 
501 # highest feature index 
2 # number of training documents 
2 # number of support vectors plus 1 
0 # threshold b, each following line is a SV (starting with alpha*y)
1 1:-8.9459005e-05 2:0.00033421602 3:0.00014482746 4:-0.00036995596 5:0.0002427904 6:-0.00040871848 7:-7.1511e-05 8:-0.00061596563 9:-0.00035210489 10:-0.00051445566 11:1.2529514e-06 12:0.00049279851 13:0.0001271901 14:0.00043967291 15:-0.0010709686 16:-0.00014376741 17:-9.9798359e-05 18:-0.000656177 19:5.9603495e-05 20:-0.00013013728 21:7.6762008e-05 22:-0.0002118125 23:-0.00026773903 24:9.4529518e-05 25:-0.000358283 26:0.00028685949 27:-0.00035887753 28:-0.00038601697 29:-0.00029748576 30:0.00029170999 31:-0.0009289821 32:-0.00030633164 33:0.00031767049 34:-0.00018098258 35:0.00031573651 36:-0.00036848246 37:0.00047026298 38:0.00016395315 39:3.0857991e-05 40:0.00083151349 41:-0.00042887201 42:-0.000134092 43:0.000213188 44:0.0007753555 45:0.00035545518 46:-0.00066644518 47:-2.4938992e-05 48:-0.00044342148 49:-0.00013691514 50:-0.00039476497 51:-0.00058288896 52:-0.00040267766 53:0.00040306002 54:-0.00012697006 55:-0.00053352118 56:0.00033859847 57:-0.00020939186 58:0.0001576355 59:-0.00038905354 60:0.00059232098 61:0.00055271824 62:-0.00013820353 63:0.0002243545 64:0.00051091425 65:-4.0865099e-05 66:-0.00048290801 67:7.6638673e-05 68:1.6652994e-05 69:-0.00041721249 70:-0.00089834258 71:0.00017713098 72:2.4107976e-05 73:-0.00016168483 74:0.00039773199 75:0.0004418235 76:0.00019276849 77:-0.00047023929 78:0.00040104569 79:6.7079018e-05 80:1.3399958e-06 81:0.00015621976 82:0.00024660147 83:0.0001490665 84:0.00013448061 85:0.0006739205 86:0.00054528756 87:0.000112348 88:-0.0001521885 89:0.00029714202 90:0.00013491498 91:-0.000244083 92:2.6667509e-05 93:0.00053671998 94:-6.0407972e-05 95:9.8856864e-05 96:-4.1536812e-05 97:-0.00023906563 98:-0.00024883301 99:-0.00014560494 100:-0.00059454201 101:0.0003946705 102:-0.00054235797 103:0.00010430948 104:-1.8115254e-05 105:-0.0001081855 106:-0.00059716502 107:-0.00032271002 108:-0.00051213399 109:4.6270256e-05 110:-0.00013485215 111:0.00022632998 112:-9.3048191e-05 113:-0.00079742901 114:0.00041295748 115:0.00036655497 116:-8.7063483e-05 117:-0.00027514852 118:4.7036789e-05 119:0.00039019951 120:0.00046833334 121:0.000562331 122:0.00049447449 123:0.00053467357 124:0.000125051 125:-0.00052309746 126:-0.00020430198 127:0.00034043752 128:3.369249e-05 129:-0.00032588956 130:-0.00070149318 131:0.00073842402 132:-0.00012440216 133:-0.00016006429 134:-0.00074113492 135:0.0005262465 136:0.00036778723 137:0.00022585048 138:-0.00013323146 139:0.00020998252 140:-0.00017785453 141:-0.00047718268 142:0.00045297798 143:-7.6466553e-05 144:-0.00078512949 145:-0.00018687698 146:9.5799776e-05 147:0.00056713034 148:3.1399475e-05 149:0.00013883748 150:8.506429e-05 151:0.00022004798 152:5.3416876e-05 153:0.00068223453 154:0.00013292898 155:-0.000265465 156:-6.2902029e-05 157:0.00022425983 158:-0.00012048476 159:0.00034480749 160:-0.00036947505 161:-4.3357726e-05 162:0.00058847986 163:1.8972993e-05 164:0.00014826401 165:-6.888801e-05 166:0.00043426297 167:0.00011712799 168:3.9556013e-05 169:0.00018913398 170:9.6951742e-05 171:-0.00059447833 172:0.0001027406 173:-0.00034775652 174:9.3439994e-05 175:6.142776e-05 176:0.00066319457 177:-0.00017004914 178:-0.00018174846 179:0.00010141496 180:-0.0001233175 181:-0.00012888249 182:-0.00077921653 183:-0.00011613847 184:-0.00030881297 185:-0.0010770715 186:-0.00020524692 187:0.00063941552 188:0.00018799368 189:-0.00076678855 190:0.00054776826 191:0.00029323838 192:4.5942634e-05 193:4.0306e-05 194:-0.00043627719 195:-0.00032240551 196:-0.00033349651 197:-9.8826509e-05 198:9.3290037e-05 199:0.00047348498 200:-0.00051516102 201:0.00015460598 202:0.000170424 203:-0.00033480462 204:-0.00026665902 205:0.00068693561 206:0.00026261952 207:-0.00064128899 208:0.00061839499 209:-0.0003304925 210:-0.00064539304 211:0.00036551824 212:0.00053462549 213:0.00031398248 214:-0.0003286025 215:7.5316872e-05 216:7.4365198e-06 217:0.00012890178 218:0.0001884761 219:-0.0003642675 220:-0.000168845 221:0.00024916857 222:-0.0004706755 223:0.0011173513 224:-0.0002653625 225:0.00043211301 226:-0.00023568451 227:1.6736496e-05 228:-0.00013686849 229:0.00041652512 230:0.00056545704 231:-5.8055026e-05 232:-0.00049740681 233:-0.00039480848 234:0.00022351202 235:-0.00015694804 236:-0.00030164601 237:0.00030917421 238:-0.00013832198 239:0.000101691 240:9.2132846e-05 241:0.00049473002 242:0.0010074575 243:0.00065089151 244:0.00060540147 245:6.8447851e-05 246:6.8537003e-05 247:-7.0219976e-05 248:0.00040893294 249:-0.00015034106 250:0.00032568729 251:7.1464647e-06 252:-8.1885191e-06 253:-0.00012715234 254:0.00060529058 255:0.00021093902 256:5.5226017e-05 257:0.000805224 258:-0.00014948801 259:0.00015976896 260:0.00027152384 261:0.00038206921 262:-0.00065981701 263:7.3976466e-05 264:0.00035623924 265:0.00014940799 266:0.00011335999 267:3.0065008e-05 268:0.00039536296 269:-0.00023246703 270:-0.00044177301 271:0.00048188952 272:-0.00020006401 273:0.00068712549 274:0.00030968711 275:-0.00017625031 276:0.00059251097 277:-0.00028497601 278:-1.318598e-05 279:0.00030202352 280:0.00022512329 281:-0.00040444749 282:0.00015226399 283:0.0001262125 284:-2.1274968e-06 285:-0.00012081474 286:0.00049526343 287:0.00047603849 288:8.5849955e-05 289:-0.00016851301 290:-0.00027500401 291:-5.6737521e-05 292:0.00046522196 293:0.00092239451 294:0.00035018846 295:-0.00027970225 296:0.000348709 297:-0.00072290155 298:0.0013744435 299:0.00052318745 300:0.00020241251 301:-0.00024588004 302:-0.00058717962 303:9.1375448e-05 304:-0.00018814355 305:3.1522253e-05 306:0.00085176498 307:-0.00010401702 308:-0.00017702846 309:-0.00065789052 310:0.0001267005 311:-0.00038900445 312:0.00055832602 313:-0.00011711558 314:-7.8707002e-05 315:0.00051552674 316:0.00018969533 317:-0.00054347498 318:-4.2607473e-05 319:-0.00051122339 320:-9.2593596e-05 321:0.00018660497 322:-0.00026647656 323:-9.5208496e-05 324:0.0001198523 325:0.00057985447 326:-0.00024679812 327:0.00027962701 328:-1.2513503e-05 329:0.0008971825 330:5.2193336e-05 331:0.00013097125 332:-0.00016215349 333:0.00014329498 334:-0.00022354 335:0.00019928499 336:0.00053854653 337:0.00027671776 338:1.9049485e-05 339:-0.00042548901 340:0.00082768989 341:-0.00035148353 342:0.00033023793 343:-0.0004173365 344:-0.00036851855 345:0.00022378797 346:-0.00073812652 347:-0.00054731354 348:-5.5984026e-05 349:4.1683004e-05 350:3.9212478e-05 351:0.00016736102 352:-0.00030577244 353:0.00066567503 354:-0.00021281805 355:-0.00053107052 356:-0.00049952802 357:0.0003934585 358:5.8671503e-05 359:-4.2485495e-05 360:0.00026321627 361:0.00016079379 362:-0.00015456149 363:-0.00050439261 364:0.00025132249 365:0.00017760404 366:0.00068438047 367:4.7600679e-07 368:0.00058625301 369:-0.00020138659 370:0.00070749898 371:-0.00023661849 372:0.00020424517 373:0.00048444423 374:-1.6237478e-05 375:0.00034403076 376:0.00031003146 377:-4.7672511e-05 378:0.00016122153 379:0.00038570448 380:0.00057560747 381:0.00017440929 382:0.00068688131 383:0.00037532949 384:2.7598244e-05 385:-0.00066701701 386:0.00030432985 387:-0.00062255899 388:0.00055438199 389:-9.2145478e-05 390:0.00083400903 391:0.00024291351 392:-0.00046748552 393:-4.6485049e-05 394:0.00020978152 395:-0.00015945002 396:-0.00053052447 397:0.00016624025 398:-0.00029013504 399:0.0004331785 400:-0.00017123249 401:-0.00042494497 402:-0.00044042052 403:0.00014906519 404:0.00026664397 405:0.00026665846 406:-2.9521003e-05 407:-0.0009255195 408:0.00054314052 409:0.00028482752 410:0.00049413554 411:0.0003371145 412:-0.00010266319 413:-0.00060844148 414:0.00015082771 415:-0.00058390037 416:0.00015750049 417:0.00046127749 418:0.0002820415 419:-0.00012340171 420:-0.00096824398 421:-0.00020879625 422:0.00019650703 423:0.0002498765 424:7.9292215e-05 425:5.0400195e-07 426:-0.00045766504 427:4.8180998e-05 428:9.2467497e-05 429:0.0002885405 430:0.00075204967 431:0.00045388751 432:-0.0006360655 433:-0.00024572451 434:0.00044617298 435:-0.00053522899 436:0.00041741505 437:-7.3412972e-05 438:-0.00033392783 439:-0.00054844102 440:0.00077199092 441:0.00011131 442:-8.6458975e-05 443:0.0004183352 444:-0.00051884551 445:0.00044089498 446:0.00086715101 447:-7.4589494e-05 448:-0.00073872344 449:-0.00018008448 450:3.9242484e-05 451:-0.00091786886 452:-9.3156981e-05 453:-0.00050420099 454:-0.00027963999 455:-0.00050071953 456:0.00038287998 457:0.000460073 458:-0.00063485804 459:-0.00061948749 460:-0.00019276851 461:0.00079221302 462:-0.00037558889 463:-0.00034701149 464:-0.00013276943 465:0.0003155575 466:-5.6914589e-05 467:-0.00023664747 468:0.00029648253 469:0.00024107401 470:0.000651362 471:-0.00025217392 472:0.00012154525 473:0.00046806547 474:0.00052601297 475:0.00012562003 476:0.00074965 477:-0.00068786298 478:0.00026043449 479:-0.0005516705 480:-2.7486027e-05 481:0.00034555976 482:0.00066874892 483:-0.00020360101 484:0.00083534652 485:-0.00057486247 486:-0.00034490251 487:7.9475605e-05 488:-0.00078025495 489:-0.00021509365 490:0.0001732075 491:2.8739987e-05 492:0.00046446425 493:-0.00098247151 494:0.00011230996 495:-0.00035961845 496:0.00024664 497:0.00062760053 498:0.00041007099 499:-5.2095005e-05 500:0.00031583881 #
