SVM-light Version V6.20
0 # kernel type
3 # kernel parameter -d 
1 # kernel parameter -g 
1 # kernel parameter -s 
1 # kernel parameter -r 
empty# kernel parameter -u 
301 # highest feature index 
67 # number of training documents 
2 # number of support vectors plus 1 
0 # threshold b, each following line is a SV (starting with alpha*y)
1 1:1.1596123 2:-3.2687159 3:3.2410712 4:1.638307 5:-2.6056428 6:5.859849 7:-2.2198234 8:-2.895062 9:-1.7094864 10:1.2769452 11:-2.4910796 12:2.0271559 13:2.0515008 14:3.2112737 15:-1.3994234 16:2.8553898 17:3.0682344 18:1.9088925 19:-0.76325351 20:4.161335 21:0.42979202 22:3.7786059 23:2.3115757 24:0.19070345 25:1.0484701 26:-1.2561841 27:1.8188385 28:2.0239339 29:0.58307612 30:-1.4696895 31:-4.7209854 32:0.754583 33:4.1581755 34:-1.4953054 35:-0.35895661 36:1.4363674 37:3.0908134 38:5.2457962 39:-0.61959904 40:3.6275504 41:-3.3690879 42:-0.49413288 43:0.17390519 44:1.5919951 45:-2.9697158 46:1.7825439 47:1.1030734 48:-2.9766436 49:1.1680098 50:2.565727 51:1.9540563 52:-0.32171792 53:4.1097422 54:2.7889776 55:-0.52812439 56:-4.4307489 57:-3.522733 58:-2.4719524 59:2.0557215 60:-1.5727673 61:-3.0359225 62:3.6431715 63:-7.1371779 64:-4.5533609 65:-0.2764506 66:9.8032207 67:-1.0035704 68:1.500217 69:1.4772737 70:5.5509191 71:-0.97316235 72:-0.47825742 73:0.20505501 74:-0.35367909 75:-6.273448 76:2.8253465 77:-4.0148478 78:-0.088521056 79:1.9413545 80:-0.36211973 81:-1.1214648 82:-0.22554785 83:1.641561 84:0.59491539 85:0.31567782 86:-5.1353188 87:-5.0164418 88:-1.3047504 89:2.0197744 90:-0.81595987 91:-0.42328438 92:-4.6352158 93:-1.8441185 94:6.6529803 95:-2.3323438 96:-1.702471 97:-2.5234697 98:4.4253993 99:-4.9188352 100:-3.7729568 101:-0.94880569 102:-1.5838963 103:0.5742774 104:1.2069547 105:2.1046488 106:-2.4682512 107:-1.6029847 108:-0.10544844 109:-1.1901084 110:0.49806291 111:5.6574125 112:1.1120878 113:1.4743234 114:2.2553666 115:-1.4327266 116:-2.4131989 117:0.65850496 118:-3.8106341 119:4.9901209 120:-1.6862903 121:1.9852455 122:1.7430278 123:-0.036553741 124:-6.6866975 125:-3.9760215 126:1.0430523 127:-3.7998981 128:-1.6779259 129:1.9299785 130:-2.0587115 131:1.982173 132:3.40061 133:5.0117202 134:-1.5869303 135:6.7884479 136:-4.4460282 137:6.1945338 138:-0.88583618 139:-3.7457037 140:-1.5478828 141:-1.9408485 142:-0.36457205 143:-4.7835011 144:-2.4255338 145:-4.9730954 146:-0.38058165 147:1.8361262 148:-2.399967 149:2.0951488 150:2.2464919 151:6.4931421 152:3.1524746 153:0.1153367 154:-0.78116703 155:-0.37323874 156:-1.2699858 157:-0.14583607 158:-3.0238242 159:3.2492225 160:2.1459138 161:-2.1219463 162:1.9971709 163:1.0593368 164:-2.5651407 165:1.69045 166:0.78876978 167:0.18989296 168:-0.3776311 169:3.6519463 170:-1.0006251 171:3.974144 172:-1.3455875 173:-1.4484757 174:0.48696971 175:-0.88730103 176:1.2910345 177:-3.0662041 178:7.1725121 179:-0.23877098 180:-1.3621463 181:-2.4043067 182:-1.1695886 183:3.2199471 184:-4.3142796 185:-5.0366659 186:0.56986445 187:1.5686823 188:-2.2451224 189:0.51843321 190:1.7124535 191:3.2720644 192:3.1222224 193:3.198144 194:-3.4414692 195:-1.6283313 196:-1.6663334 197:-4.7778392 198:6.1262512 199:1.1105105 200:-2.4053812 201:-4.0448189 202:-0.56621122 203:3.263875 204:-1.9886985 205:-4.2627845 206:-2.3785975 207:2.6437778 208:-2.2467229 209:1.1404625 210:-0.80851084 211:3.4776678 212:-0.56875038 213:1.6536167 214:-0.049455501 215:-0.69870776 216:2.7940524 217:0.53355896 218:1.046623 219:-0.0059186583 220:-4.1424513 221:-4.1317697 222:2.9883997 223:0.49007848 224:-0.37086174 225:-0.13601598 226:1.1373024 227:-2.7759397 228:2.5485961 229:-2.6125405 230:-1.387554 231:0.24404813 232:10.595155 233:1.1891547 234:-3.8119044 235:-4.4133735 236:3.7400804 237:-0.60650212 238:0.010110491 239:-4.0757351 240:-0.86003971 241:0.90372419 242:-0.66408211 243:-2.6164021 244:-0.13079587 245:-0.80295891 246:0.64921123 247:-1.2216631 248:-0.80360377 249:2.0769217 250:4.0427918 251:0.32001024 252:-0.1732215 253:-2.757072 254:-0.068039142 255:-3.181267 256:1.9098213 257:3.7485356 258:-1.6306709 259:1.5380787 260:-0.42104393 261:-0.826639 262:-1.5655094 263:2.1963215 264:2.2518082 265:-2.7060745 266:-0.052410912 267:3.3273785 268:1.8895015 269:-3.672004 270:-4.4112144 271:-3.4261084 272:-1.0282702 273:-0.65093476 274:-1.1970614 275:-3.0968521 276:-1.0095401 277:0.9429059 278:-2.5467639 279:2.4042015 280:-0.80691922 281:-3.2235825 282:-0.27365249 283:-3.8340831 284:-2.8124156 285:0.75639826 286:-3.2506607 287:-4.2278104 288:-0.12505309 289:-0.9700399 290:2.8382971 291:0.70410895 292:0.092914857 293:5.0548887 294:3.3209951 295:3.4686983 296:-5.94138 297:2.6658785 298:-6.0947213 299:0.15043192 300:6.3966031 #
